<?xml version="1.0"?>
<opencv_storage>
<stage12>
  <maxWeakCount>66</maxWeakCount>
  <stageThreshold>-1.1406972408294678e+00</stageThreshold>
  <weakClassifiers>
    <_>
      <internalNodes>
        0 -1 159078 2.2016644477844238e-02</internalNodes>
      <leafValues>
        -2.7591240406036377e-01 1.8702064454555511e-01</leafValues></_>
    <_>
      <internalNodes>
        0 -1 13718 2.3922255262732506e-02</internalNodes>
      <leafValues>
        -1.6103364527225494e-01 3.5190048813819885e-01</leafValues></_>
    <_>
      <internalNodes>
        0 -1 114415 -2.1182354539632797e-03</internalNodes>
      <leafValues>
        3.9659863710403442e-01 -8.0037042498588562e-02</leafValues></_>
    <_>
      <internalNodes>
        0 -1 110444 7.5387554243206978e-03</internalNodes>
      <leafValues>
        -2.3890367150306702e-01 1.3115954399108887e-01</leafValues></_>
    <_>
      <internalNodes>
        0 -1 11049 -3.7981502246111631e-03</internalNodes>
      <leafValues>
        3.0147561430931091e-01 -9.2310957610607147e-02</leafValues></_>
    <_>
      <internalNodes>
        0 -1 1103 2.1146453917026520e-01</internalNodes>
      <leafValues>
        -2.7832549810409546e-01 1.0743226855993271e-01</leafValues></_>
    <_>
      <internalNodes>
        0 -1 11049 2.1294443868100643e-03</internalNodes>
      <leafValues>
        -1.0898275673389435e-01 2.8246191143989563e-01</leafValues></_>
    <_>
      <internalNodes>
        0 -1 14445 1.1995455250144005e-02</internalNodes>
      <leafValues>
        -9.2072129249572754e-02 4.5327401161193848e-01</leafValues></_>
    <_>
      <internalNodes>
        0 -1 478 2.0851772278547287e-02</internalNodes>
      <leafValues>
        -1.6571605205535889e-01 1.8079361319541931e-01</leafValues></_>
    <_>
      <internalNodes>
        0 -1 20947 -3.1851651147007942e-03</internalNodes>
      <leafValues>
        3.2127740979194641e-01 -1.3646437227725983e-01</leafValues></_>
    <_>
      <internalNodes>
        0 -1 41490 6.3790282001718879e-04</internalNodes>
      <leafValues>
        1.2216018140316010e-01 -2.4332115054130554e-01</leafValues></_>
    <_>
      <internalNodes>
        0 -1 53556 3.6468065809458494e-04</internalNodes>
      <leafValues>
        1.2067132443189621e-01 -2.5619593262672424e-01</leafValues></_>
    <_>
      <internalNodes>
        0 -1 1279 7.5791180133819580e-03</internalNodes>
      <leafValues>
        -1.8581199645996094e-01 1.4494590461254120e-01</leafValues></_>
    <_>
      <internalNodes>
        0 -1 132416 -9.1191995888948441e-03</internalNodes>
      <leafValues>
        1.8256428837776184e-01 -1.4974898099899292e-01</leafValues></_>
    <_>
      <internalNodes>
        0 -1 133677 6.0239546000957489e-03</internalNodes>
      <leafValues>
        -5.4971907287836075e-02 5.3007370233535767e-01</leafValues></_>
    <_>
      <internalNodes>
        0 -1 89986 2.1712963934987783e-03</internalNodes>
      <leafValues>
        1.0841758549213409e-01 -2.5985518097877502e-01</leafValues></_>
    <_>
      <internalNodes>
        0 -1 107239 1.7804300412535667e-02</internalNodes>
      <leafValues>
        -9.7203291952610016e-02 2.9282104969024658e-01</leafValues></_>
    <_>
      <internalNodes>
        0 -1 155232 -5.2042247261852026e-04</internalNodes>
      <leafValues>
        -3.4239950776100159e-01 7.9817749559879303e-02</leafValues></_>
    <_>
      <internalNodes>
        0 -1 143728 -3.2574014039710164e-04</internalNodes>
      <leafValues>
        -2.8740802407264709e-01 9.7810842096805573e-02</leafValues></_>
    <_>
      <internalNodes>
        0 -1 139533 7.6463916338980198e-03</internalNodes>
      <leafValues>
        -8.9686110615730286e-02 3.0106866359710693e-01</leafValues></_>
    <_>
      <internalNodes>
        0 -1 3633 -5.8795817196369171e-02</internalNodes>
      <leafValues>
        -4.3515035510063171e-01 6.6789694130420685e-02</leafValues></_>
    <_>
      <internalNodes>
        0 -1 138998 3.7228158907964826e-04</internalNodes>
      <leafValues>
        8.2662008702754974e-02 -2.9756301641464233e-01</leafValues></_>
    <_>
      <internalNodes>
        0 -1 161978 -1.6006322111934423e-03</internalNodes>
      <leafValues>
        2.8109878301620483e-01 -9.0165399014949799e-02</leafValues></_>
    <_>
      <internalNodes>
        0 -1 133998 -2.1849921904504299e-03</internalNodes>
      <leafValues>
        2.1419024467468262e-01 -1.1137752234935760e-01</leafValues></_>
    <_>
      <internalNodes>
        0 -1 65799 2.8512433171272278e-02</internalNodes>
      <leafValues>
        -1.1955552548170090e-01 2.1277025341987610e-01</leafValues></_>
    <_>
      <internalNodes>
        0 -1 89826 5.4845702834427357e-04</internalNodes>
      <leafValues>
        7.7033057808876038e-02 -2.8943234682083130e-01</leafValues></_>
    <_>
      <internalNodes>
        0 -1 127935 -1.7564739100635052e-03</internalNodes>
      <leafValues>
        2.9973793029785156e-01 -7.4881590902805328e-02</leafValues></_>
    <_>
      <internalNodes>
        0 -1 156839 4.8414967022836208e-04</internalNodes>
      <leafValues>
        9.5931336283683777e-02 -2.3341354727745056e-01</leafValues></_>
    <_>
      <internalNodes>
        0 -1 116381 2.9685394838452339e-02</internalNodes>
      <leafValues>
        -8.0594383180141449e-02 2.7774727344512939e-01</leafValues></_>
    <_>
      <internalNodes>
        0 -1 12232 -1.2980810133740306e-03</internalNodes>
      <leafValues>
        3.2163313031196594e-01 -7.2632499039173126e-02</leafValues></_>
    <_>
      <internalNodes>
        0 -1 67176 -6.0975458472967148e-03</internalNodes>
      <leafValues>
        2.9666298627853394e-01 -7.6099559664726257e-02</leafValues></_>
    <_>
      <internalNodes>
        0 -1 30830 1.4748420566320419e-02</internalNodes>
      <leafValues>
        -1.7422087490558624e-01 1.3601022958755493e-01</leafValues></_>
    <_>
      <internalNodes>
        0 -1 62144 5.3708730265498161e-03</internalNodes>
      <leafValues>
        -4.5557063072919846e-02 5.0298839807510376e-01</leafValues></_>
    <_>
      <internalNodes>
        0 -1 60517 5.4879211820662022e-03</internalNodes>
      <leafValues>
        -6.9624066352844238e-02 3.2746645808219910e-01</leafValues></_>
    <_>
      <internalNodes>
        0 -1 4049 -7.9703383147716522e-02</internalNodes>
      <leafValues>
        -6.8537330627441406e-01 3.7278711795806885e-02</leafValues></_>
    <_>
      <internalNodes>
        0 -1 60439 -1.4596830587834120e-03</internalNodes>
      <leafValues>
        2.6962235569953918e-01 -9.3038149178028107e-02</leafValues></_>
    <_>
      <internalNodes>
        0 -1 60518 1.3670998159796000e-03</internalNodes>
      <leafValues>
        9.9107787013053894e-02 -2.4045653641223907e-01</leafValues></_>
    <_>
      <internalNodes>
        0 -1 160835 6.3747223466634750e-03</internalNodes>
      <leafValues>
        -7.6701194047927856e-02 3.2264399528503418e-01</leafValues></_>
    <_>
      <internalNodes>
        0 -1 50498 -1.2781191617250443e-02</internalNodes>
      <leafValues>
        -4.3243655562400818e-01 5.6987300515174866e-02</leafValues></_>
    <_>
      <internalNodes>
        0 -1 70638 2.5366987101733685e-03</internalNodes>
      <leafValues>
        -1.3319890201091766e-01 1.7702868580818176e-01</leafValues></_>
    <_>
      <internalNodes>
        0 -1 2166 1.4503475278615952e-02</internalNodes>
      <leafValues>
        -5.8566395193338394e-02 3.9165389537811279e-01</leafValues></_>
    <_>
      <internalNodes>
        0 -1 146274 -1.2482249177992344e-02</internalNodes>
      <leafValues>
        -5.3733539581298828e-01 4.6550691127777100e-02</leafValues></_>
    <_>
      <internalNodes>
        0 -1 161033 -3.1965724192559719e-03</internalNodes>
      <leafValues>
        2.7572977542877197e-01 -9.0448744595050812e-02</leafValues></_>
    <_>
      <internalNodes>
        0 -1 137039 -2.8914049267768860e-02</internalNodes>
      <leafValues>
        -5.0929236412048340e-01 4.6361412853002548e-02</leafValues></_>
    <_>
      <internalNodes>
        0 -1 105730 -3.3265431411564350e-03</internalNodes>
      <leafValues>
        3.5458049178123474e-01 -6.9701552391052246e-02</leafValues></_>
    <_>
      <internalNodes>
        0 -1 86268 4.0453225374221802e-02</internalNodes>
      <leafValues>
        -1.6099411249160767e-01 1.4168217778205872e-01</leafValues></_>
    <_>
      <internalNodes>
        0 -1 4919 3.8798564672470093e-01</internalNodes>
      <leafValues>
        5.3200848400592804e-02 -5.4745078086853027e-01</leafValues></_>
    <_>
      <internalNodes>
        0 -1 101687 4.4977973448112607e-04</internalNodes>
      <leafValues>
        7.8840352594852448e-02 -2.7902796864509583e-01</leafValues></_>
    <_>
      <internalNodes>
        0 -1 139169 -9.5287698786705732e-04</internalNodes>
      <leafValues>
        1.9196210801601410e-01 -1.2547330558300018e-01</leafValues></_>
    <_>
      <internalNodes>
        0 -1 49433 -4.5395232737064362e-03</internalNodes>
      <leafValues>
        2.5902736186981201e-01 -8.5441052913665771e-02</leafValues></_>
    <_>
      <internalNodes>
        0 -1 2143 7.2029624134302139e-03</internalNodes>
      <leafValues>
        -7.3038324713706970e-02 3.1507435441017151e-01</leafValues></_>
    <_>
      <internalNodes>
        0 -1 14417 5.3811940597370267e-04</internalNodes>
      <leafValues>
        1.1458275467157364e-01 -2.0785067975521088e-01</leafValues></_>
    <_>
      <internalNodes>
        0 -1 138884 3.2453262247145176e-04</internalNodes>
      <leafValues>
        8.7390534579753876e-02 -2.7098390460014343e-01</leafValues></_>
    <_>
      <internalNodes>
        0 -1 120592 -1.8955828636535443e-05</internalNodes>
      <leafValues>
        1.6486725211143494e-01 -1.5413135290145874e-01</leafValues></_>
    <_>
      <internalNodes>
        0 -1 59553 4.8918105661869049e-02</internalNodes>
      <leafValues>
        2.8598366305232048e-02 -7.6722800731658936e-01</leafValues></_>
    <_>
      <internalNodes>
        0 -1 136346 -1.2283495627343655e-02</internalNodes>
      <leafValues>
        1.9719323515892029e-01 -1.1832515895366669e-01</leafValues></_>
    <_>
      <internalNodes>
        0 -1 141735 -8.1149075413122773e-04</internalNodes>
      <leafValues>
        -2.7338641881942749e-01 8.3876244723796844e-02</leafValues></_>
    <_>
      <internalNodes>
        0 -1 162258 1.8292218446731567e-03</internalNodes>
      <leafValues>
        -5.8558743447065353e-02 3.9192408323287964e-01</leafValues></_>
    <_>
      <internalNodes>
        0 -1 145034 4.9556244630366564e-04</internalNodes>
      <leafValues>
        8.0961562693119049e-02 -2.7878820896148682e-01</leafValues></_>
    <_>
      <internalNodes>
        0 -1 152123 2.2803973406553268e-02</internalNodes>
      <leafValues>
        -8.4274947643280029e-02 2.9151362180709839e-01</leafValues></_>
    <_>
      <internalNodes>
        0 -1 133115 3.1995360041037202e-04</internalNodes>
      <leafValues>
        8.7990298867225647e-02 -2.6627856492996216e-01</leafValues></_>
    <_>
      <internalNodes>
        0 -1 3133 4.8745833919383585e-04</internalNodes>
      <leafValues>
        9.1087497770786285e-02 -2.4010308086872101e-01</leafValues></_>
    <_>
      <internalNodes>
        0 -1 148991 2.5254396721720695e-02</internalNodes>
      <leafValues>
        -1.0803285986185074e-01 1.9958049058914185e-01</leafValues></_>
    <_>
      <internalNodes>
        0 -1 41152 2.6641815900802612e-02</internalNodes>
      <leafValues>
        -4.3576743453741074e-02 5.4544270038604736e-01</leafValues></_>
    <_>
      <internalNodes>
        0 -1 99 -1.3514459133148193e-02</internalNodes>
      <leafValues>
        3.3279275894165039e-01 -6.2517330050468445e-02</leafValues></_>
    <_>
      <internalNodes>
        0 -1 87912 -1.9158005670760758e-05</internalNodes>
      <leafValues>
        1.6368171572685242e-01 -1.3614918291568756e-01</leafValues></_></weakClassifiers></stage12>
</opencv_storage>
