<?xml version="1.0"?>
<opencv_storage>
<stage0>
  <maxWeakCount>8</maxWeakCount>
  <stageThreshold>-1.1768587827682495e+00</stageThreshold>
  <weakClassifiers>
    <_>
      <internalNodes>
        0 -1 1066 5.1036696881055832e-02</internalNodes>
      <leafValues>
        -4.4660949707031250e-01 7.5675678253173828e-01</leafValues></_>
    <_>
      <internalNodes>
        0 -1 153499 2.9880279675126076e-02</internalNodes>
      <leafValues>
        -4.3509128689765930e-01 6.3162237405776978e-01</leafValues></_>
    <_>
      <internalNodes>
        0 -1 5651 2.3582991212606430e-02</internalNodes>
      <leafValues>
        -5.9247058629989624e-01 3.3575335144996643e-01</leafValues></_>
    <_>
      <internalNodes>
        0 -1 1161 1.1886462569236755e-02</internalNodes>
      <leafValues>
        -2.8717410564422607e-01 7.5802171230316162e-01</leafValues></_>
    <_>
      <internalNodes>
        0 -1 3023 -3.9922192692756653e-02</internalNodes>
      <leafValues>
        -6.9905400276184082e-01 3.3138406276702881e-01</leafValues></_>
    <_>
      <internalNodes>
        0 -1 71505 1.5772812068462372e-02</internalNodes>
      <leafValues>
        -1.4817018806934357e-01 7.9377806186676025e-01</leafValues></_>
    <_>
      <internalNodes>
        0 -1 90393 -5.4976628161966801e-03</internalNodes>
      <leafValues>
        5.4276704788208008e-01 -2.0738239586353302e-01</leafValues></_>
    <_>
      <internalNodes>
        0 -1 8825 -5.3647309541702271e-03</internalNodes>
      <leafValues>
        7.1086931228637695e-01 -1.3428090512752533e-01</leafValues></_></weakClassifiers></stage0>
</opencv_storage>
