<?xml version="1.0"?>
<opencv_storage>
<stage18>
  <maxWeakCount>60</maxWeakCount>
  <stageThreshold>-1.1829552650451660e+00</stageThreshold>
  <weakClassifiers>
    <_>
      <internalNodes>
        0 -1 152097 2.4108555167913437e-02</internalNodes>
      <leafValues>
        -3.7936636805534363e-01 8.6145296692848206e-02</leafValues></_>
    <_>
      <internalNodes>
        0 -1 114765 4.0769446641206741e-02</internalNodes>
      <leafValues>
        -2.6686808466911316e-01 1.7694054543972015e-01</leafValues></_>
    <_>
      <internalNodes>
        0 -1 156909 1.1896844953298569e-03</internalNodes>
      <leafValues>
        1.5615960955619812e-01 -3.0128866434097290e-01</leafValues></_>
    <_>
      <internalNodes>
        0 -1 138527 -1.9287151517346501e-03</internalNodes>
      <leafValues>
        1.5256482362747192e-01 -2.2158893942832947e-01</leafValues></_>
    <_>
      <internalNodes>
        0 -1 4151 4.0844217874109745e-03</internalNodes>
      <leafValues>
        -1.4966833591461182e-01 2.7962711453437805e-01</leafValues></_>
    <_>
      <internalNodes>
        0 -1 11380 -1.7672825604677200e-02</internalNodes>
      <leafValues>
        -4.5466071367263794e-01 6.4181916415691376e-02</leafValues></_>
    <_>
      <internalNodes>
        0 -1 27261 1.3541448861360550e-02</internalNodes>
      <leafValues>
        -1.2820300459861755e-01 3.4396445751190186e-01</leafValues></_>
    <_>
      <internalNodes>
        0 -1 108020 1.8696178813115694e-05</internalNodes>
      <leafValues>
        -1.4923258125782013e-01 2.2853909432888031e-01</leafValues></_>
    <_>
      <internalNodes>
        0 -1 103850 2.4653859436511993e-03</internalNodes>
      <leafValues>
        -1.1082495748996735e-01 3.2601338624954224e-01</leafValues></_>
    <_>
      <internalNodes>
        0 -1 105445 4.6244272962212563e-03</internalNodes>
      <leafValues>
        -1.0776111483573914e-01 2.8752815723419189e-01</leafValues></_>
    <_>
      <internalNodes>
        0 -1 133717 2.1116402931511402e-03</internalNodes>
      <leafValues>
        -2.2013867273926735e-02 4.8563602566719055e-01</leafValues></_>
    <_>
      <internalNodes>
        0 -1 128027 -2.3130204062908888e-03</internalNodes>
      <leafValues>
        2.3849835991859436e-01 -1.4564387500286102e-01</leafValues></_>
    <_>
      <internalNodes>
        0 -1 133281 2.6630349457263947e-03</internalNodes>
      <leafValues>
        7.4527449905872345e-02 -3.9149615168571472e-01</leafValues></_>
    <_>
      <internalNodes>
        0 -1 93111 4.1718926513567567e-04</internalNodes>
      <leafValues>
        8.2761578261852264e-02 -3.1486007571220398e-01</leafValues></_>
    <_>
      <internalNodes>
        0 -1 114210 1.5817733947187662e-03</internalNodes>
      <leafValues>
        1.1873634904623032e-01 -2.3731531202793121e-01</leafValues></_>
    <_>
      <internalNodes>
        0 -1 2566 1.5340456739068031e-02</internalNodes>
      <leafValues>
        -8.0597430467605591e-02 3.7295365333557129e-01</leafValues></_>
    <_>
      <internalNodes>
        0 -1 15400 -2.8885598294436932e-03</internalNodes>
      <leafValues>
        2.7013632655143738e-01 -1.2048963457345963e-01</leafValues></_>
    <_>
      <internalNodes>
        0 -1 152410 9.9400728940963745e-02</internalNodes>
      <leafValues>
        -9.8601937294006348e-02 3.4016203880310059e-01</leafValues></_>
    <_>
      <internalNodes>
        0 -1 160367 -2.9858257621526718e-03</internalNodes>
      <leafValues>
        5.7887691259384155e-01 -3.8683079183101654e-02</leafValues></_>
    <_>
      <internalNodes>
        0 -1 149554 -1.1338653042912483e-02</internalNodes>
      <leafValues>
        2.9386597871780396e-01 -1.1525599658489227e-01</leafValues></_>
    <_>
      <internalNodes>
        0 -1 127195 -2.5196164846420288e-02</internalNodes>
      <leafValues>
        1.8697208166122437e-01 -1.5667316317558289e-01</leafValues></_>
    <_>
      <internalNodes>
        0 -1 128515 -4.1414768929826096e-05</internalNodes>
      <leafValues>
        1.8127274513244629e-01 -1.4470361173152924e-01</leafValues></_>
    <_>
      <internalNodes>
        0 -1 152122 3.8700997829437256e-02</internalNodes>
      <leafValues>
        -1.0037685185670853e-01 3.7089180946350098e-01</leafValues></_>
    <_>
      <internalNodes>
        0 -1 134052 2.3143258295021951e-04</internalNodes>
      <leafValues>
        -2.0219558477401733e-01 1.6908234357833862e-01</leafValues></_>
    <_>
      <internalNodes>
        0 -1 78229 -2.6069660671055317e-03</internalNodes>
      <leafValues>
        4.5043835043907166e-01 -6.1800312250852585e-02</leafValues></_>
    <_>
      <internalNodes>
        0 -1 141893 3.4921496990136802e-04</internalNodes>
      <leafValues>
        1.0814565420150757e-01 -2.9017341136932373e-01</leafValues></_>
    <_>
      <internalNodes>
        0 -1 4774 3.2798498868942261e-02</internalNodes>
      <leafValues>
        -2.2195732593536377e-01 1.3684269785881042e-01</leafValues></_>
    <_>
      <internalNodes>
        0 -1 13002 -8.0768775660544634e-04</internalNodes>
      <leafValues>
        2.7314907312393188e-01 -1.1152994632720947e-01</leafValues></_>
    <_>
      <internalNodes>
        0 -1 98267 2.5907316012308002e-04</internalNodes>
      <leafValues>
        1.2316554784774780e-01 -2.4097464978694916e-01</leafValues></_>
    <_>
      <internalNodes>
        0 -1 86192 8.8402740657329559e-03</internalNodes>
      <leafValues>
        -6.9186486303806305e-02 4.5840236544609070e-01</leafValues></_>
    <_>
      <internalNodes>
        0 -1 127486 -1.7894009361043572e-03</internalNodes>
      <leafValues>
        5.0731211900711060e-01 -4.8450905829668045e-02</leafValues></_>
    <_>
      <internalNodes>
        0 -1 69558 -3.5199930425733328e-04</internalNodes>
      <leafValues>
        -3.0902501940727234e-01 9.4814129173755646e-02</leafValues></_>
    <_>
      <internalNodes>
        0 -1 112765 -2.3208558559417725e-03</internalNodes>
      <leafValues>
        3.0127066373825073e-01 -9.6101894974708557e-02</leafValues></_>
    <_>
      <internalNodes>
        0 -1 128137 -1.3159837573766708e-02</internalNodes>
      <leafValues>
        -5.3640544414520264e-01 5.0596315413713455e-02</leafValues></_>
    <_>
      <internalNodes>
        0 -1 39883 1.0092565789818764e-02</internalNodes>
      <leafValues>
        -3.2696664333343506e-02 9.2742675542831421e-01</leafValues></_>
    <_>
      <internalNodes>
        0 -1 162021 2.6129700243473053e-02</internalNodes>
      <leafValues>
        4.5740850269794464e-02 -7.3282516002655029e-01</leafValues></_>
    <_>
      <internalNodes>
        0 -1 161095 4.4299744331510738e-05</internalNodes>
      <leafValues>
        -1.5658114850521088e-01 1.9401565194129944e-01</leafValues></_>
    <_>
      <internalNodes>
        0 -1 98397 -2.3868372663855553e-03</internalNodes>
      <leafValues>
        5.0897169113159180e-01 -5.0800759345293045e-02</leafValues></_>
    <_>
      <internalNodes>
        0 -1 37667 6.5625496208667755e-03</internalNodes>
      <leafValues>
        -4.1472993791103363e-02 6.0650116205215454e-01</leafValues></_>
    <_>
      <internalNodes>
        0 -1 80347 -4.5638345181941986e-03</internalNodes>
      <leafValues>
        -3.2680684328079224e-01 9.2722505331039429e-02</leafValues></_>
    <_>
      <internalNodes>
        0 -1 126963 5.6199589744210243e-03</internalNodes>
      <leafValues>
        -3.8223616778850555e-02 7.7501899003982544e-01</leafValues></_>
    <_>
      <internalNodes>
        0 -1 138456 2.0938279340043664e-04</internalNodes>
      <leafValues>
        1.2253154814243317e-01 -2.3709760606288910e-01</leafValues></_>
    <_>
      <internalNodes>
        0 -1 6720 5.3598573431372643e-03</internalNodes>
      <leafValues>
        -1.2317238003015518e-01 2.3212520778179169e-01</leafValues></_>
    <_>
      <internalNodes>
        0 -1 4475 1.8858703970909119e-01</internalNodes>
      <leafValues>
        6.9955870509147644e-02 -4.3186971545219421e-01</leafValues></_>
    <_>
      <internalNodes>
        0 -1 130920 -1.9062083447352052e-03</internalNodes>
      <leafValues>
        2.9991433024406433e-01 -9.5133937895298004e-02</leafValues></_>
    <_>
      <internalNodes>
        0 -1 149865 -5.9123360551893711e-04</internalNodes>
      <leafValues>
        -3.1376954913139343e-01 8.5325367748737335e-02</leafValues></_>
    <_>
      <internalNodes>
        0 -1 70723 -1.6748501366237178e-05</internalNodes>
      <leafValues>
        2.0353928208351135e-01 -1.3664300739765167e-01</leafValues></_>
    <_>
      <internalNodes>
        0 -1 161167 -1.8937212880700827e-03</internalNodes>
      <leafValues>
        3.0172541737556458e-01 -9.3457683920860291e-02</leafValues></_>
    <_>
      <internalNodes>
        0 -1 61601 5.7684190571308136e-02</internalNodes>
      <leafValues>
        -3.8795396685600281e-02 7.3189765214920044e-01</leafValues></_>
    <_>
      <internalNodes>
        0 -1 71796 5.2180713973939419e-03</internalNodes>
      <leafValues>
        1.6005919873714447e-01 -1.9912117719650269e-01</leafValues></_>
    <_>
      <internalNodes>
        0 -1 14836 -9.7717717289924622e-02</internalNodes>
      <leafValues>
        -4.6746134757995605e-01 6.2669135630130768e-02</leafValues></_>
    <_>
      <internalNodes>
        0 -1 143841 7.3735497426241636e-04</internalNodes>
      <leafValues>
        1.0692635178565979e-01 -2.4900026619434357e-01</leafValues></_>
    <_>
      <internalNodes>
        0 -1 40292 8.7674446403980255e-02</internalNodes>
      <leafValues>
        -1.0131117701530457e-01 3.0585366487503052e-01</leafValues></_>
    <_>
      <internalNodes>
        0 -1 17628 -1.9685360789299011e-01</internalNodes>
      <leafValues>
        5.5993509292602539e-01 -5.0553213804960251e-02</leafValues></_>
    <_>
      <internalNodes>
        0 -1 121236 -9.1883318964391947e-04</internalNodes>
      <leafValues>
        2.6367652416229248e-01 -1.0802324116230011e-01</leafValues></_>
    <_>
      <internalNodes>
        0 -1 113347 2.0067924633622169e-03</internalNodes>
      <leafValues>
        -8.6346201598644257e-02 3.5172390937805176e-01</leafValues></_>
    <_>
      <internalNodes>
        0 -1 101841 -2.6925627142190933e-02</internalNodes>
      <leafValues>
        -4.8816180229187012e-01 6.5793387591838837e-02</leafValues></_>
    <_>
      <internalNodes>
        0 -1 81139 9.3829497694969177e-02</internalNodes>
      <leafValues>
        6.1715845018625259e-02 -4.6176540851593018e-01</leafValues></_>
    <_>
      <internalNodes>
        0 -1 12479 -1.8833000212907791e-02</internalNodes>
      <leafValues>
        -6.4434146881103516e-01 3.7279110401868820e-02</leafValues></_>
    <_>
      <internalNodes>
        0 -1 62911 6.9306767545640469e-04</internalNodes>
      <leafValues>
        1.2157045304775238e-01 -2.3007230460643768e-01</leafValues></_></weakClassifiers></stage18>
</opencv_storage>
